<?xml version="1.0"?>
<MethodSetup Method="DL::DL1">
  <GeneralInfo>
    <Info name="TMVA Release" value="4.2.1 [262657]"/>
    <Info name="ROOT Release" value="6.22/00 [398848]"/>
    <Info name="Creator" value="pasquale"/>
    <Info name="Date" value="Mon Oct 12 20:15:47 2020"/>
    <Info name="Host" value="Linux pasquale 5.4.0-42-generic #46-Ubuntu SMP Fri Jul 10 00:24:02 UTC 2020 x86_64 x86_64 x86_64 GNU/Linux"/>
    <Info name="Dir" value="/home/pasquale/Trial"/>
    <Info name="Training events" value="20000"/>
    <Info name="TrainingTime" value="3.16582830e+01"/>
    <Info name="AnalysisType" value="Classification"/>
  </GeneralInfo>
  <Options>
    <Option name="V" modified="Yes">True</Option>
    <Option name="VerbosityLevel" modified="No">Verbose</Option>
    <Option name="VarTransform" modified="Yes">N</Option>
    <Option name="H" modified="Yes">False</Option>
    <Option name="CreateMVAPdfs" modified="No">False</Option>
    <Option name="IgnoreNegWeightsInTraining" modified="No">False</Option>
    <Option name="InputLayout" modified="No">0|0|0</Option>
    <Option name="BatchLayout" modified="No">0|0|0</Option>
    <Option name="Layout" modified="Yes">TANH|100,</Option>
    <Option name="ErrorStrategy" modified="Yes">CROSSENTROPY</Option>
    <Option name="WeightInitialization" modified="Yes">XAVIERUNIFORM</Option>
    <Option name="RandomSeed" modified="No">0</Option>
    <Option name="ValidationSize" modified="No">20%</Option>
    <Option name="Architecture" modified="No">CPU</Option>
    <Option name="TrainingStrategy" modified="Yes">LearningRate=1e-1,Momentum=0.5,</Option>
  </Options>
  <Variables NVar="7">
    <Variable VarIndex="0" Expression="sqrt(pow(jet1_px,2)+pow(jet1_py,2))" Label="MVAjet1_pT" Title="MVAjet1_pT" Unit="" Internal="MVAjet1_pT" Type="F" Min="1.20000488e+03" Max="3.14721387e+03"/>
    <Variable VarIndex="1" Expression="sqrt(pow(jet2_px,2)+pow(jet2_py,2))" Label="MVAjet2_pT" Title="MVAjet2_pT" Unit="" Internal="MVAjet2_pT" Type="F" Min="4.64428680e+02" Max="2.93609863e+03"/>
    <Variable VarIndex="2" Expression="sqrt(abs(pow(jet1_E,2)-pow(jet1_px,2)-pow(jet1_py,2)-pow(jet1_pz,2)))" Label="MVAjet1_m" Title="MVAjet1_m" Unit="" Internal="MVAjet1_m" Type="F" Min="5.39479652e-06" Max="1.26403845e+03"/>
    <Variable VarIndex="3" Expression="sqrt(abs(pow(jet2_E,2)-pow(jet2_px,2)-pow(jet2_py,2)-pow(jet2_pz,2)))" Label="MVAjet2_m" Title="MVAjet2_m" Unit="" Internal="MVAjet2_m" Type="F" Min="1.29557371e+01" Max="1.11980005e+03"/>
    <Variable VarIndex="4" Expression="sqrt(abs(pow(jet1_E+jet2_E,2)-pow(jet1_px+jet2_px,2)-pow(jet1_py+jet2_py,2)-pow(jet1_pz+jet2_pz,2)))" Label="MVAjet_mjj" Title="MVAjet_mjj" Unit="" Internal="MVAjet_mjj" Type="F" Min="1.62789111e+03" Max="7.89487354e+03"/>
    <Variable VarIndex="5" Expression="jet1_px" Label="MVAjet1_px" Title="MVAjet1_px" Unit="" Internal="MVAjet1_px" Type="F" Min="-2.50936670e+03" Max="3.02109814e+03"/>
    <Variable VarIndex="6" Expression="jet2_px" Label="MVAjet2_px" Title="MVAjet2_px" Unit="" Internal="MVAjet2_px" Type="F" Min="-2.84343457e+03" Max="2.49503467e+03"/>
  </Variables>
  <Spectators NSpec="0"/>
  <Classes NClass="2">
    <Class Name="Signal" Index="0"/>
    <Class Name="Background" Index="1"/>
  </Classes>
  <Transformations NTransformations="1">
    <Transform Name="Normalize">
      <Selection>
        <Input NInputs="7">
          <Input Type="Variable" Label="MVAjet1_pT" Expression="sqrt(pow(jet1_px,2)+pow(jet1_py,2))"/>
          <Input Type="Variable" Label="MVAjet2_pT" Expression="sqrt(pow(jet2_px,2)+pow(jet2_py,2))"/>
          <Input Type="Variable" Label="MVAjet1_m" Expression="sqrt(abs(pow(jet1_E,2)-pow(jet1_px,2)-pow(jet1_py,2)-pow(jet1_pz,2)))"/>
          <Input Type="Variable" Label="MVAjet2_m" Expression="sqrt(abs(pow(jet2_E,2)-pow(jet2_px,2)-pow(jet2_py,2)-pow(jet2_pz,2)))"/>
          <Input Type="Variable" Label="MVAjet_mjj" Expression="sqrt(abs(pow(jet1_E+jet2_E,2)-pow(jet1_px+jet2_px,2)-pow(jet1_py+jet2_py,2)-pow(jet1_pz+jet2_pz,2)))"/>
          <Input Type="Variable" Label="MVAjet1_px" Expression="jet1_px"/>
          <Input Type="Variable" Label="MVAjet2_px" Expression="jet2_px"/>
        </Input>
        <Output NOutputs="7">
          <Output Type="Variable" Label="MVAjet1_pT" Expression="sqrt(pow(jet1_px,2)+pow(jet1_py,2))"/>
          <Output Type="Variable" Label="MVAjet2_pT" Expression="sqrt(pow(jet2_px,2)+pow(jet2_py,2))"/>
          <Output Type="Variable" Label="MVAjet1_m" Expression="sqrt(abs(pow(jet1_E,2)-pow(jet1_px,2)-pow(jet1_py,2)-pow(jet1_pz,2)))"/>
          <Output Type="Variable" Label="MVAjet2_m" Expression="sqrt(abs(pow(jet2_E,2)-pow(jet2_px,2)-pow(jet2_py,2)-pow(jet2_pz,2)))"/>
          <Output Type="Variable" Label="MVAjet_mjj" Expression="sqrt(abs(pow(jet1_E+jet2_E,2)-pow(jet1_px+jet2_px,2)-pow(jet1_py+jet2_py,2)-pow(jet1_pz+jet2_pz,2)))"/>
          <Output Type="Variable" Label="MVAjet1_px" Expression="jet1_px"/>
          <Output Type="Variable" Label="MVAjet2_px" Expression="jet2_px"/>
        </Output>
      </Selection>
      <Class ClassIndex="0">
        <Ranges>
          <Range Index="0" Min="1.2000573730468750e+03" Max="2.6628105468750000e+03"/>
          <Range Index="1" Min="5.6190100097656250e+02" Max="2.6089821777343750e+03"/>
          <Range Index="2" Min="5.3947965170664247e-06" Max="1.2567780761718750e+03"/>
          <Range Index="3" Min="1.4282142639160156e+01" Max="1.1198000488281250e+03"/>
          <Range Index="4" Min="1.7486964111328125e+03" Max="5.7130224609375000e+03"/>
          <Range Index="5" Min="-2.3688759765625000e+03" Max="2.3126970214843750e+03"/>
          <Range Index="6" Min="-2.2801359863281250e+03" Max="2.1440268554687500e+03"/>
        </Ranges>
      </Class>
      <Class ClassIndex="1">
        <Ranges>
          <Range Index="0" Min="1.2000048828125000e+03" Max="3.1472138671875000e+03"/>
          <Range Index="1" Min="4.6442868041992188e+02" Max="2.9360986328125000e+03"/>
          <Range Index="2" Min="1.0742756843566895e+01" Max="1.2640384521484375e+03"/>
          <Range Index="3" Min="1.2955737113952637e+01" Max="1.0807320556640625e+03"/>
          <Range Index="4" Min="1.6278911132812500e+03" Max="7.8948735351562500e+03"/>
          <Range Index="5" Min="-2.5093666992187500e+03" Max="3.0210981445312500e+03"/>
          <Range Index="6" Min="-2.8434345703125000e+03" Max="2.4950346679687500e+03"/>
        </Ranges>
      </Class>
      <Class ClassIndex="2">
        <Ranges>
          <Range Index="0" Min="1.2000048828125000e+03" Max="3.1472138671875000e+03"/>
          <Range Index="1" Min="4.6442868041992188e+02" Max="2.9360986328125000e+03"/>
          <Range Index="2" Min="5.3947965170664247e-06" Max="1.2640384521484375e+03"/>
          <Range Index="3" Min="1.2955737113952637e+01" Max="1.1198000488281250e+03"/>
          <Range Index="4" Min="1.6278911132812500e+03" Max="7.8948735351562500e+03"/>
          <Range Index="5" Min="-2.5093666992187500e+03" Max="3.0210981445312500e+03"/>
          <Range Index="6" Min="-2.8434345703125000e+03" Max="2.4950346679687500e+03"/>
        </Ranges>
      </Class>
    </Transform>
  </Transformations>
  <MVAPdfs/>
  <Weights NetDepth="1" InputDepth="1" InputHeight="1" InputWidth="7" BatchSize="1" BatchDepth="1" BatchHeight="30" BatchWidth="7" LossFunction="C" Initialization="F" Regularization="0" OutputFunction="S" WeightDecay="0.0000000000000000e+00">
    <DenseLayer Width="100" ActivationFunction="3">
      <Weights Rows="100" Columns="7">
        -1.887767e+00  1.258280e+01  1.702923e+01  1.557127e+01  7.175691e+00  1.445998e+00  6.884767e-01  1.886922e+00  -1.258145e+01  -1.702667e+01  -1.556908e+01  -7.175425e+00  -1.435999e+00  -6.788518e-01  2.076420e+00  -2.273681e+00  1.255292e+00  1.268290e+00  1.469586e+00  3.983198e-01  7.108245e-01  1.945325e+00  -2.280277e+00  1.263395e+00  1.276991e+00  1.637589e+00  3.136992e-01  6.207937e-01  2.030922e+00  -2.468278e+00  1.282563e+00  1.308893e+00  1.663429e+00  4.897278e-01  8.335893e-01  1.826002e+00  -2.173235e+00  1.268682e+00  1.270770e+00  1.683239e+00  5.486575e-01  8.714814e-01  2.084318e+00  -2.449110e+00  1.272404e+00  1.288639e+00  1.615059e+00  5.234369e-01  8.644285e-01  1.834035e+00  -2.165001e+00  1.266898e+00  1.270224e+00  1.671831e+00  4.753502e-01  7.907110e-01  1.867157e+00  -2.141589e+00  1.261726e+00  1.267188e+00  1.611427e+00  3.599898e-01  6.621792e-01  1.876416e+00  -2.124911e+00  1.258388e+00  1.263180e+00  1.587644e+00  4.128157e-01  7.178142e-01  2.016811e+00  -2.404618e+00  1.278058e+00  1.298877e+00  1.630304e+00  5.069393e-01  8.463333e-01  2.058179e+00  -2.294418e+00  1.256396e+00  1.266452e+00  1.532314e+00  3.772899e-01  6.882560e-01  2.079866e+00  -2.444970e+00  1.274341e+00  1.298271e+00  1.596603e+00  4.465310e-01  7.815452e-01  2.048796e+00  -2.348757e+00  1.265063e+00  1.282966e+00  1.553763e+00  2.822593e-01  5.927808e-01  1.822070e+00  -2.126262e+00  1.262183e+00  1.263813e+00  1.661351e+00  5.651556e-01  8.837641e-01  1.810958e+00  -2.106587e+00  1.257335e+00  1.261817e+00  1.663270e+00  5.808780e-01  8.983153e-01  1.930557e+00  -2.227358e+00  1.266048e+00  1.277491e+00  1.597233e+00  3.299981e-01  6.368105e-01  2.063807e+00  -2.382410e+00  1.265474e+00  1.286647e+00  1.575388e+00  3.615090e-01  6.804743e-01  1.967007e+00  -2.352240e+00  1.275052e+00  1.298471e+00  1.649912e+00  3.887200e-01  7.111221e-01  1.906501e+00  -2.163328e+00  1.257509e+00  1.262005e+00  1.589443e+00  4.717530e-01  7.841188e-01  1.948328e+00  -2.264147e+00  1.260482e+00  1.261915e+00  1.656320e+00  5.733804e-01  8.994970e-01  1.851740e+00  -2.099002e+00  1.261606e+00  1.263982e+00  1.587364e+00  5.823370e-01  9.013719e-01  1.931071e+00  -2.265476e+00  1.265942e+00  1.269862e+00  1.646878e+00  4.207865e-01  7.368721e-01  2.030866e+00  -2.283962e+00  1.259120e+00  1.269573e+00  1.543185e+00  3.799771e-01  6.919801e-01  1.876010e+00  -2.161935e+00  1.267421e+00  1.277244e+00  1.596100e+00  3.960720e-01  7.058808e-01  1.856662e+00  -2.104826e+00  1.260790e+00  1.273906e+00  1.569547e+00  5.204126e-01  8.353968e-01  2.085939e+00  -2.327177e+00  1.255014e+00  1.268087e+00  1.536800e+00  3.367421e-01  6.447611e-01  2.105163e+00  -2.380016e+00  1.270870e+00  1.295775e+00  1.487380e+00  4.958281e-01  8.319886e-01  1.964247e+00  -2.192446e+00  1.254376e+00  1.267440e+00  1.547045e+00  4.343551e-01  7.436191e-01  1.923087e+00  -2.301866e+00  1.271853e+00  1.279150e+00  1.683728e+00  3.936187e-01  7.110671e-01  2.129902e+00  -2.402045e+00  1.266736e+00  1.284235e+00  1.517186e+00  4.630212e-01  7.933574e-01  1.834959e+00  -2.155993e+00  1.262370e+00  1.275314e+00  1.653907e+00  4.647060e-01  7.776507e-01  1.966832e+00  -2.160724e+00  1.252901e+00  1.268423e+00  1.496225e+00  4.024478e-01  7.075909e-01  1.969940e+00  -2.294479e+00  1.271868e+00  1.284160e+00  1.606457e+00  5.116058e-01  8.408049e-01  1.832622e+00  -2.134362e+00  1.263160e+00  1.264252e+00  1.652255e+00  5.969605e-01  9.196934e-01  1.946698e+00  -2.288240e+00  1.263777e+00  1.275579e+00  1.650806e+00  3.578124e-01  6.692145e-01  2.092085e+00  -2.421653e+00  1.268338e+00  1.288663e+00  1.578759e+00  2.998145e-01  6.157459e-01  1.945756e+00  -2.259837e+00  1.268219e+00  1.285263e+00  1.583195e+00  3.021686e-01  6.108312e-01  1.897813e+00  -2.207353e+00  1.261605e+00  1.275194e+00  1.641927e+00  3.534004e-01  6.580359e-01  2.023846e+00  -2.298857e+00  1.263535e+00  1.284306e+00  1.551494e+00  3.455767e-01  6.570939e-01  1.872595e+00  -2.137847e+00  1.261077e+00  1.260914e+00  1.602178e+00  5.149074e-01  8.304392e-01  1.915278e+00  -2.122712e+00  1.253045e+00  1.259602e+00  1.550969e+00  4.752894e-01  7.833056e-01  1.972477e+00  -2.335360e+00  1.270966e+00  1.282318e+00  1.648310e+00  3.071269e-01  6.189128e-01  2.112285e+00  -2.410991e+00  1.264540e+00  1.287469e+00  1.555171e+00  4.099930e-01  7.345659e-01  1.862526e+00  -2.155972e+00  1.263623e+00  1.275110e+00  1.620000e+00  5.078166e-01  8.253400e-01  1.899110e+00  -2.164812e+00  1.258305e+00  1.266396e+00  1.611156e+00  6.146087e-01  9.384332e-01  2.012923e+00  -2.309678e+00  1.271269e+00  1.289936e+00  1.542812e+00  5.487466e-01  8.839222e-01  2.013516e+00  -2.289516e+00  1.263107e+00  1.273981e+00  1.567899e+00  3.931258e-01  7.078010e-01  1.958781e+00  -2.234911e+00  1.260625e+00  1.274442e+00  1.589763e+00  3.616990e-01  6.686916e-01  2.087198e+00  -2.436363e+00  1.266408e+00  1.291098e+00  1.593642e+00  2.527496e-01  5.658906e-01  2.131221e+00  -2.383933e+00  1.267106e+00  1.293108e+00  1.463803e+00  4.481744e-01  7.779258e-01  2.126655e+00  -2.417045e+00  1.272595e+00  1.294310e+00  1.498462e+00  5.247282e-01  8.665851e-01  2.067809e+00  -2.279180e+00  1.258781e+00  1.273575e+00  1.475898e+00  3.922590e-01  7.057620e-01  2.011278e+00  -2.228225e+00  1.257004e+00  1.266580e+00  1.521484e+00  3.980002e-01  7.069711e-01  1.908673e+00  -2.165345e+00  1.262768e+00  1.270970e+00  1.573744e+00  3.337632e-01  6.357169e-01  2.021883e+00  -2.277032e+00  1.264071e+00  1.285623e+00  1.515832e+00  2.726873e-01  5.771155e-01  1.939308e+00  -2.203671e+00  1.259567e+00  1.272143e+00  1.576134e+00  5.134649e-01  8.330089e-01  2.120585e+00  -2.336809e+00  1.256984e+00  1.276243e+00  1.474929e+00  3.549150e-01  6.673843e-01  2.050216e+00  -2.315280e+00  1.260661e+00  1.273690e+00  1.555953e+00  5.089192e-01  8.346946e-01  1.990703e+00  -2.289040e+00  1.266221e+00  1.285147e+00  1.579508e+00  4.829158e-01  8.074000e-01  1.826067e+00  -2.124096e+00  1.259910e+00  1.273948e+00  1.638979e+00  3.349971e-01  6.342521e-01  1.987269e+00  -2.379984e+00  1.275072e+00  1.300570e+00  1.644848e+00  2.879434e-01  6.045434e-01  1.947404e+00  -2.226583e+00  1.269173e+00  1.286410e+00  1.542846e+00  5.324692e-01  8.601026e-01  1.871948e+00  -2.268925e+00  1.272567e+00  1.289519e+00  1.702425e+00  4.982303e-01  8.239197e-01  2.013130e+00  -2.200338e+00  1.251732e+00  1.258885e+00  1.494649e+00  4.346880e-01  7.438266e-01  1.910656e+00  -2.164325e+00  1.263831e+00  1.274981e+00  1.568602e+00  5.635132e-01  8.861843e-01  1.992351e+00  -2.269516e+00  1.259859e+00  1.272033e+00  1.578019e+00  3.930795e-01  7.050923e-01  1.989278e+00  -2.331681e+00  1.268250e+00  1.272217e+00  1.655962e+00  5.354958e-01  8.656405e-01  2.089034e+00  -2.395664e+00  1.266796e+00  1.283316e+00  1.557910e+00  2.676401e-01  5.792034e-01  1.926837e+00  -2.122958e+00  1.250764e+00  1.257126e+00  1.536834e+00  5.998477e-01  9.181953e-01  1.884861e+00  -2.150365e+00  1.264977e+00  1.269046e+00  1.594813e+00  5.066323e-01  8.228149e-01  1.851768e+00  -2.141725e+00  1.259718e+00  1.263473e+00  1.645906e+00  5.313443e-01  8.469137e-01  2.027698e+00  -2.257689e+00  1.257021e+00  1.279838e+00  1.509004e+00  3.494321e-01  6.570555e-01  1.917782e+00  -2.213454e+00  1.264965e+00  1.266662e+00  1.618778e+00  5.303658e-01  8.528080e-01  2.043422e+00  -2.324111e+00  1.261472e+00  1.284508e+00  1.544646e+00  3.188463e-01  6.291702e-01  2.112202e+00  -2.434986e+00  1.267046e+00  1.298242e+00  1.549794e+00  3.209944e-01  6.410874e-01  1.904449e+00  -2.177594e+00  1.256285e+00  1.261638e+00  1.622134e+00  4.502761e-01  7.595498e-01  1.872654e+00  -2.240106e+00  1.268794e+00  1.288119e+00  1.678332e+00  3.268822e-01  6.343039e-01  1.862576e+00  -2.156336e+00  1.265475e+00  1.277517e+00  1.608824e+00  3.926094e-01  7.007807e-01  2.123695e+00  -2.360330e+00  1.258439e+00  1.276524e+00  1.506309e+00  3.244075e-01  6.354504e-01  2.039675e+00  -2.379485e+00  1.267521e+00  1.289767e+00  1.607062e+00  2.874299e-01  5.997880e-01  2.022913e+00  -2.288501e+00  1.262185e+00  1.287284e+00  1.529456e+00  3.006583e-01  6.074542e-01  2.080379e+00  -2.336367e+00  1.261640e+00  1.270058e+00  1.528243e+00  3.917156e-01  7.086048e-01  1.974824e+00  -2.210683e+00  1.259164e+00  1.281112e+00  1.517458e+00  3.747126e-01  6.833401e-01  1.908765e+00  -2.253432e+00  1.268852e+00  1.280924e+00  1.642402e+00  3.955452e-01  7.104357e-01  1.884938e+00  -2.134161e+00  1.255010e+00  1.258950e+00  1.605775e+00  6.119421e-01  9.324358e-01  2.061264e+00  -2.447381e+00  1.279634e+00  1.307145e+00  1.596674e+00  4.421377e-01  7.798564e-01  1.965085e+00  -2.267489e+00  1.267892e+00  1.279837e+00  1.584836e+00  5.183705e-01  8.457542e-01  1.856807e+00  -2.219270e+00  1.274185e+00  1.292887e+00  1.657734e+00  3.190933e-01  6.277518e-01  1.875102e+00  -2.266423e+00  1.275665e+00  1.292555e+00  1.687704e+00  5.332904e-01  8.635578e-01  1.999126e+00  -2.331967e+00  1.266204e+00  1.287083e+00  1.601374e+00  2.918569e-01  6.021396e-01  1.903142e+00  -2.297650e+00  1.276549e+00  1.298512e+00  1.675779e+00  3.641817e-01  6.814611e-01  1.942397e+00  -2.319739e+00  1.274539e+00  1.289065e+00  1.655530e+00  3.402729e-01  6.558996e-01  2.068340e+00  -2.451765e+00  1.274031e+00  1.290671e+00  1.640976e+00  4.224929e-01  7.536936e-01  1.943100e+00  -2.310804e+00  1.268781e+00  1.287381e+00  1.663590e+00  3.414751e-01  6.547294e-01  1.869012e+00  -2.211202e+00  1.262363e+00  1.268013e+00  1.692342e+00  3.343017e-01  6.364117e-01  2.007489e+00  -2.311784e+00  1.267214e+00  1.286276e+00  1.581209e+00  5.051589e-01  8.334152e-01  1.955454e+00  -2.256572e+00  1.271151e+00  1.289539e+00  1.556901e+00  4.497659e-01  7.724660e-01  2.080033e+00  -2.266580e+00  1.252729e+00  1.261872e+00  1.476106e+00  5.071471e-01  8.281503e-01  2.066422e+00  -2.334802e+00  1.261491e+00  1.277958e+00  1.550493e+00  4.485466e-01  7.702147e-01  
      </Weights>
      <Biases Rows="100" Columns="1">
        2.381873e+01  -2.381666e+01  -6.789221e+00  -6.816275e+00  -6.846850e+00  -6.831994e+00  -6.816537e+00  -6.815034e+00  -6.794872e+00  -6.797750e+00  -6.831727e+00  -6.769432e+00  -6.818232e+00  -6.817335e+00  -6.811374e+00  -6.815001e+00  -6.798462e+00  -6.803143e+00  -6.814379e+00  -6.804086e+00  -6.790744e+00  -6.802897e+00  -6.820719e+00  -6.789145e+00  -6.804020e+00  -6.809328e+00  -6.755675e+00  -6.812571e+00  -6.779369e+00  -6.818229e+00  -6.778088e+00  -6.823231e+00  -6.794940e+00  -6.800355e+00  -6.813508e+00  -6.811755e+00  -6.793023e+00  -6.831801e+00  -6.781628e+00  -6.774043e+00  -6.812109e+00  -6.776628e+00  -6.810790e+00  -6.774734e+00  -6.806600e+00  -6.779055e+00  -6.820671e+00  -6.781635e+00  -6.773401e+00  -6.818309e+00  -6.807018e+00  -6.819285e+00  -6.789178e+00  -6.768715e+00  -6.787263e+00  -6.789506e+00  -6.797044e+00  -6.772376e+00  -6.772203e+00  -6.790736e+00  -6.809095e+00  -6.825946e+00  -6.826021e+00  -6.828790e+00  -6.787252e+00  -6.782771e+00  -6.790746e+00  -6.785206e+00  -6.797768e+00  -6.789417e+00  -6.785996e+00  -6.797837e+00  -6.777451e+00  -6.801503e+00  -6.797469e+00  -6.802113e+00  -6.785515e+00  -6.809264e+00  -6.811163e+00  -6.750446e+00  -6.789958e+00  -6.790028e+00  -6.791099e+00  -6.794672e+00  -6.825343e+00  -6.789061e+00  -6.839569e+00  -6.814240e+00  -6.815697e+00  -6.826013e+00  -6.817917e+00  -6.815344e+00  -6.820349e+00  -6.806455e+00  -6.807150e+00  -6.796538e+00  -6.789231e+00  -6.828917e+00  -6.777421e+00  -6.765133e+00  
      </Biases>
    </DenseLayer>
  </Weights>
</MethodSetup>
