<?xml version="1.0"?>
<MethodSetup Method="DL::DL2">
  <GeneralInfo>
    <Info name="TMVA Release" value="4.2.1 [262657]"/>
    <Info name="ROOT Release" value="6.22/00 [398848]"/>
    <Info name="Creator" value="pasquale"/>
    <Info name="Date" value="Mon Oct 12 20:16:53 2020"/>
    <Info name="Host" value="Linux pasquale 5.4.0-42-generic #46-Ubuntu SMP Fri Jul 10 00:24:02 UTC 2020 x86_64 x86_64 x86_64 GNU/Linux"/>
    <Info name="Dir" value="/home/pasquale/Trial"/>
    <Info name="Training events" value="20000"/>
    <Info name="TrainingTime" value="6.55967231e+01"/>
    <Info name="AnalysisType" value="Classification"/>
  </GeneralInfo>
  <Options>
    <Option name="V" modified="Yes">True</Option>
    <Option name="VerbosityLevel" modified="No">Verbose</Option>
    <Option name="VarTransform" modified="Yes">N</Option>
    <Option name="H" modified="Yes">False</Option>
    <Option name="CreateMVAPdfs" modified="No">False</Option>
    <Option name="IgnoreNegWeightsInTraining" modified="No">False</Option>
    <Option name="InputLayout" modified="No">0|0|0</Option>
    <Option name="BatchLayout" modified="No">0|0|0</Option>
    <Option name="Layout" modified="Yes">TANH|100,</Option>
    <Option name="ErrorStrategy" modified="Yes">CROSSENTROPY</Option>
    <Option name="WeightInitialization" modified="Yes">XAVIERUNIFORM</Option>
    <Option name="RandomSeed" modified="No">0</Option>
    <Option name="ValidationSize" modified="No">20%</Option>
    <Option name="Architecture" modified="No">CPU</Option>
    <Option name="TrainingStrategy" modified="Yes">LearningRate=1e-1,Momentum=0.5,</Option>
  </Options>
  <Variables NVar="7">
    <Variable VarIndex="0" Expression="sqrt(pow(jet1_px,2)+pow(jet1_py,2))" Label="MVAjet1_pT" Title="MVAjet1_pT" Unit="" Internal="MVAjet1_pT" Type="F" Min="1.20000488e+03" Max="3.14721387e+03"/>
    <Variable VarIndex="1" Expression="sqrt(pow(jet2_px,2)+pow(jet2_py,2))" Label="MVAjet2_pT" Title="MVAjet2_pT" Unit="" Internal="MVAjet2_pT" Type="F" Min="4.64428680e+02" Max="2.93609863e+03"/>
    <Variable VarIndex="2" Expression="sqrt(abs(pow(jet1_E,2)-pow(jet1_px,2)-pow(jet1_py,2)-pow(jet1_pz,2)))" Label="MVAjet1_m" Title="MVAjet1_m" Unit="" Internal="MVAjet1_m" Type="F" Min="5.39479652e-06" Max="1.26403845e+03"/>
    <Variable VarIndex="3" Expression="sqrt(abs(pow(jet2_E,2)-pow(jet2_px,2)-pow(jet2_py,2)-pow(jet2_pz,2)))" Label="MVAjet2_m" Title="MVAjet2_m" Unit="" Internal="MVAjet2_m" Type="F" Min="1.29557371e+01" Max="1.11980005e+03"/>
    <Variable VarIndex="4" Expression="sqrt(abs(pow(jet1_E+jet2_E,2)-pow(jet1_px+jet2_px,2)-pow(jet1_py+jet2_py,2)-pow(jet1_pz+jet2_pz,2)))" Label="MVAjet_mjj" Title="MVAjet_mjj" Unit="" Internal="MVAjet_mjj" Type="F" Min="1.62789111e+03" Max="7.89487354e+03"/>
    <Variable VarIndex="5" Expression="jet1_px" Label="MVAjet1_px" Title="MVAjet1_px" Unit="" Internal="MVAjet1_px" Type="F" Min="-2.50936670e+03" Max="3.02109814e+03"/>
    <Variable VarIndex="6" Expression="jet2_px" Label="MVAjet2_px" Title="MVAjet2_px" Unit="" Internal="MVAjet2_px" Type="F" Min="-2.84343457e+03" Max="2.49503467e+03"/>
  </Variables>
  <Spectators NSpec="0"/>
  <Classes NClass="2">
    <Class Name="Signal" Index="0"/>
    <Class Name="Background" Index="1"/>
  </Classes>
  <Transformations NTransformations="1">
    <Transform Name="Normalize">
      <Selection>
        <Input NInputs="7">
          <Input Type="Variable" Label="MVAjet1_pT" Expression="sqrt(pow(jet1_px,2)+pow(jet1_py,2))"/>
          <Input Type="Variable" Label="MVAjet2_pT" Expression="sqrt(pow(jet2_px,2)+pow(jet2_py,2))"/>
          <Input Type="Variable" Label="MVAjet1_m" Expression="sqrt(abs(pow(jet1_E,2)-pow(jet1_px,2)-pow(jet1_py,2)-pow(jet1_pz,2)))"/>
          <Input Type="Variable" Label="MVAjet2_m" Expression="sqrt(abs(pow(jet2_E,2)-pow(jet2_px,2)-pow(jet2_py,2)-pow(jet2_pz,2)))"/>
          <Input Type="Variable" Label="MVAjet_mjj" Expression="sqrt(abs(pow(jet1_E+jet2_E,2)-pow(jet1_px+jet2_px,2)-pow(jet1_py+jet2_py,2)-pow(jet1_pz+jet2_pz,2)))"/>
          <Input Type="Variable" Label="MVAjet1_px" Expression="jet1_px"/>
          <Input Type="Variable" Label="MVAjet2_px" Expression="jet2_px"/>
        </Input>
        <Output NOutputs="7">
          <Output Type="Variable" Label="MVAjet1_pT" Expression="sqrt(pow(jet1_px,2)+pow(jet1_py,2))"/>
          <Output Type="Variable" Label="MVAjet2_pT" Expression="sqrt(pow(jet2_px,2)+pow(jet2_py,2))"/>
          <Output Type="Variable" Label="MVAjet1_m" Expression="sqrt(abs(pow(jet1_E,2)-pow(jet1_px,2)-pow(jet1_py,2)-pow(jet1_pz,2)))"/>
          <Output Type="Variable" Label="MVAjet2_m" Expression="sqrt(abs(pow(jet2_E,2)-pow(jet2_px,2)-pow(jet2_py,2)-pow(jet2_pz,2)))"/>
          <Output Type="Variable" Label="MVAjet_mjj" Expression="sqrt(abs(pow(jet1_E+jet2_E,2)-pow(jet1_px+jet2_px,2)-pow(jet1_py+jet2_py,2)-pow(jet1_pz+jet2_pz,2)))"/>
          <Output Type="Variable" Label="MVAjet1_px" Expression="jet1_px"/>
          <Output Type="Variable" Label="MVAjet2_px" Expression="jet2_px"/>
        </Output>
      </Selection>
      <Class ClassIndex="0">
        <Ranges>
          <Range Index="0" Min="1.2000573730468750e+03" Max="2.6628105468750000e+03"/>
          <Range Index="1" Min="5.6190100097656250e+02" Max="2.6089821777343750e+03"/>
          <Range Index="2" Min="5.3947965170664247e-06" Max="1.2567780761718750e+03"/>
          <Range Index="3" Min="1.4282142639160156e+01" Max="1.1198000488281250e+03"/>
          <Range Index="4" Min="1.7486964111328125e+03" Max="5.7130224609375000e+03"/>
          <Range Index="5" Min="-2.3688759765625000e+03" Max="2.3126970214843750e+03"/>
          <Range Index="6" Min="-2.2801359863281250e+03" Max="2.1440268554687500e+03"/>
        </Ranges>
      </Class>
      <Class ClassIndex="1">
        <Ranges>
          <Range Index="0" Min="1.2000048828125000e+03" Max="3.1472138671875000e+03"/>
          <Range Index="1" Min="4.6442868041992188e+02" Max="2.9360986328125000e+03"/>
          <Range Index="2" Min="1.0742756843566895e+01" Max="1.2640384521484375e+03"/>
          <Range Index="3" Min="1.2955737113952637e+01" Max="1.0807320556640625e+03"/>
          <Range Index="4" Min="1.6278911132812500e+03" Max="7.8948735351562500e+03"/>
          <Range Index="5" Min="-2.5093666992187500e+03" Max="3.0210981445312500e+03"/>
          <Range Index="6" Min="-2.8434345703125000e+03" Max="2.4950346679687500e+03"/>
        </Ranges>
      </Class>
      <Class ClassIndex="2">
        <Ranges>
          <Range Index="0" Min="1.2000048828125000e+03" Max="3.1472138671875000e+03"/>
          <Range Index="1" Min="4.6442868041992188e+02" Max="2.9360986328125000e+03"/>
          <Range Index="2" Min="5.3947965170664247e-06" Max="1.2640384521484375e+03"/>
          <Range Index="3" Min="1.2955737113952637e+01" Max="1.1198000488281250e+03"/>
          <Range Index="4" Min="1.6278911132812500e+03" Max="7.8948735351562500e+03"/>
          <Range Index="5" Min="-2.5093666992187500e+03" Max="3.0210981445312500e+03"/>
          <Range Index="6" Min="-2.8434345703125000e+03" Max="2.4950346679687500e+03"/>
        </Ranges>
      </Class>
    </Transform>
  </Transformations>
  <MVAPdfs/>
  <Weights NetDepth="1" InputDepth="1" InputHeight="1" InputWidth="7" BatchSize="1" BatchDepth="1" BatchHeight="30" BatchWidth="7" LossFunction="C" Initialization="F" Regularization="0" OutputFunction="S" WeightDecay="0.0000000000000000e+00">
    <DenseLayer Width="100" ActivationFunction="3">
      <Weights Rows="100" Columns="7">
        -3.155357e+00  1.947208e+01  2.964880e+01  2.736561e+01  1.209351e+01  4.466191e+00  4.991868e+00  3.155538e+00  -1.947261e+01  -2.964989e+01  -2.736674e+01  -1.209421e+01  -4.466599e+00  -4.992062e+00  1.979120e+00  -2.453625e+00  1.130820e+00  1.165909e+00  1.407921e+00  2.056569e-01  5.219309e-01  1.870845e+00  -2.358190e+00  1.124479e+00  1.147345e+00  1.469967e+00  2.650251e-01  5.779597e-01  2.014147e+00  -2.474744e+00  1.131588e+00  1.165226e+00  1.385640e+00  1.839524e-01  4.996082e-01  2.034710e+00  -2.567702e+00  1.143338e+00  1.183534e+00  1.462027e+00  1.246610e-01  4.406911e-01  2.013788e+00  -2.520608e+00  1.138489e+00  1.168071e+00  1.450885e+00  1.937829e-01  5.129494e-01  2.118917e+00  -2.649261e+00  1.157244e+00  1.204811e+00  1.411941e+00  2.378439e-01  5.792779e-01  2.056305e+00  -2.529866e+00  1.137608e+00  1.177377e+00  1.378970e+00  1.467011e-01  4.637878e-01  1.922932e+00  -2.392577e+00  1.125611e+00  1.152697e+00  1.430066e+00  2.716297e-01  5.887292e-01  1.883080e+00  -2.398690e+00  1.131380e+00  1.154673e+00  1.496275e+00  2.357336e-01  5.492373e-01  1.996677e+00  -2.534890e+00  1.140565e+00  1.183986e+00  1.466921e+00  4.085701e-02  3.453718e-01  2.039290e+00  -2.497700e+00  1.131583e+00  1.161001e+00  1.391709e+00  2.277112e-01  5.490360e-01  1.941534e+00  -2.429164e+00  1.132500e+00  1.166863e+00  1.424631e+00  2.105370e-01  5.261003e-01  1.973659e+00  -2.513221e+00  1.144087e+00  1.173716e+00  1.498052e+00  3.256451e-01  6.599967e-01  1.992137e+00  -2.512707e+00  1.140060e+00  1.171698e+00  1.467001e+00  2.100874e-01  5.312012e-01  2.076505e+00  -2.650260e+00  1.162604e+00  1.202983e+00  1.490817e+00  3.451438e-01  6.985669e-01  1.939710e+00  -2.447836e+00  1.136931e+00  1.161146e+00  1.472015e+00  3.509063e-01  6.826003e-01  1.988908e+00  -2.443659e+00  1.130862e+00  1.160957e+00  1.389525e+00  3.147428e-01  6.427790e-01  2.034268e+00  -2.547733e+00  1.142366e+00  1.179747e+00  1.438857e+00  2.014883e-01  5.255388e-01  2.125828e+00  -2.604825e+00  1.142664e+00  1.180935e+00  1.385840e+00  1.781320e-01  5.045471e-01  2.060413e+00  -2.623495e+00  1.152463e+00  1.198940e+00  1.477707e+00  1.036952e-01  4.240853e-01  1.889557e+00  -2.407347e+00  1.136475e+00  1.159594e+00  1.489968e+00  3.602030e-01  6.897122e-01  1.966306e+00  -2.432827e+00  1.129942e+00  1.159468e+00  1.412160e+00  3.001277e-01  6.247457e-01  2.053927e+00  -2.496957e+00  1.134335e+00  1.162487e+00  1.364839e+00  3.122272e-01  6.452023e-01  2.011242e+00  -2.455036e+00  1.125722e+00  1.153362e+00  1.391074e+00  2.624565e-01  5.828613e-01  1.920277e+00  -2.411526e+00  1.125774e+00  1.152519e+00  1.461512e+00  1.497911e-01  4.536942e-01  2.062585e+00  -2.601655e+00  1.149128e+00  1.181758e+00  1.475948e+00  2.212757e-01  5.516102e-01  1.941835e+00  -2.413002e+00  1.122867e+00  1.150654e+00  1.432410e+00  1.032265e-01  4.020518e-01  1.915429e+00  -2.414243e+00  1.135072e+00  1.164881e+00  1.446147e+00  3.127138e-01  6.387468e-01  2.079613e+00  -2.607918e+00  1.149617e+00  1.188538e+00  1.446825e+00  2.406836e-01  5.755012e-01  1.875109e+00  -2.400246e+00  1.132338e+00  1.157025e+00  1.511425e+00  2.770109e-01  5.949955e-01  2.011326e+00  -2.483367e+00  1.131866e+00  1.168992e+00  1.395981e+00  1.480689e-01  4.601168e-01  1.923833e+00  -2.428647e+00  1.133863e+00  1.160365e+00  1.467275e+00  2.790489e-01  6.009754e-01  1.987731e+00  -2.443832e+00  1.131039e+00  1.152648e+00  1.409594e+00  3.792735e-01  7.132130e-01  1.851886e+00  -2.399962e+00  1.135597e+00  1.160236e+00  1.536934e+00  2.182595e-01  5.303684e-01  2.102270e+00  -2.649671e+00  1.156036e+00  1.191482e+00  1.470865e+00  2.669528e-01  6.086463e-01  1.978349e+00  -2.507768e+00  1.140047e+00  1.175840e+00  1.471739e+00  1.837941e-01  5.016769e-01  2.064104e+00  -2.499369e+00  1.125046e+00  1.155810e+00  1.371096e+00  1.424872e-01  4.521713e-01  2.081109e+00  -2.541129e+00  1.135447e+00  1.168463e+00  1.384276e+00  2.511235e-01  5.795135e-01  1.987088e+00  -2.550226e+00  1.151949e+00  1.192563e+00  1.486074e+00  2.400373e-01  5.710605e-01  2.084913e+00  -2.634006e+00  1.151782e+00  1.193807e+00  1.471928e+00  2.135678e-01  5.468757e-01  1.953052e+00  -2.464277e+00  1.133774e+00  1.164722e+00  1.467858e+00  1.737152e-01  4.861116e-01  1.915217e+00  -2.468158e+00  1.138339e+00  1.172520e+00  1.518999e+00  1.447370e-01  4.543982e-01  1.913539e+00  -2.425119e+00  1.131280e+00  1.159945e+00  1.477962e+00  2.037569e-01  5.159962e-01  1.926463e+00  -2.446158e+00  1.133803e+00  1.163620e+00  1.485133e+00  2.207411e-01  5.365936e-01  2.076842e+00  -2.603764e+00  1.146325e+00  1.188597e+00  1.447327e+00  2.013285e-01  5.301260e-01  1.899657e+00  -2.445420e+00  1.145085e+00  1.173975e+00  1.506051e+00  3.995472e-01  7.382899e-01  1.914993e+00  -2.464003e+00  1.141979e+00  1.168978e+00  1.523598e+00  3.316116e-01  6.621853e-01  2.033384e+00  -2.537012e+00  1.135846e+00  1.174838e+00  1.437260e+00  1.024526e-01  4.122634e-01  1.938412e+00  -2.464754e+00  1.136498e+00  1.170055e+00  1.477450e+00  1.652755e-01  4.774468e-01  2.109513e+00  -2.632161e+00  1.146642e+00  1.193365e+00  1.426163e+00  7.520120e-02  3.915766e-01  1.853102e+00  -2.386573e+00  1.134408e+00  1.154529e+00  1.528477e+00  3.251974e-01  6.472518e-01  1.905357e+00  -2.372107e+00  1.125593e+00  1.146766e+00  1.437269e+00  3.001980e-01  6.188411e-01  1.851827e+00  -2.328556e+00  1.121617e+00  1.146957e+00  1.451024e+00  2.004359e-01  5.053461e-01  1.882603e+00  -2.431486e+00  1.136002e+00  1.166904e+00  1.526519e+00  1.940898e-01  5.060338e-01  1.902382e+00  -2.482401e+00  1.148814e+00  1.188308e+00  1.523367e+00  1.935952e-01  5.136409e-01  1.943178e+00  -2.480275e+00  1.139361e+00  1.166795e+00  1.498281e+00  1.637388e-01  4.763647e-01  1.928137e+00  -2.402850e+00  1.126233e+00  1.154996e+00  1.432319e+00  1.985357e-01  5.084805e-01  2.053250e+00  -2.654368e+00  1.161344e+00  1.214126e+00  1.502612e+00  1.101551e-01  4.360035e-01  2.071185e+00  -2.514906e+00  1.132293e+00  1.169425e+00  1.353481e+00  2.006894e-01  5.215279e-01  2.081140e+00  -2.640381e+00  1.158479e+00  1.193106e+00  1.483585e+00  2.954368e-01  6.402700e-01  2.140256e+00  -2.615305e+00  1.142015e+00  1.190478e+00  1.358099e+00  6.741371e-02  3.831201e-01  1.918512e+00  -2.420921e+00  1.129309e+00  1.158382e+00  1.466931e+00  1.430188e-01  4.481529e-01  1.992751e+00  -2.510717e+00  1.134809e+00  1.165354e+00  1.475914e+00  1.063526e-01  4.130372e-01  2.045000e+00  -2.503556e+00  1.129547e+00  1.159433e+00  1.400705e+00  2.014688e-01  5.188217e-01  2.008117e+00  -2.551277e+00  1.144052e+00  1.182886e+00  1.484283e+00  2.127716e-01  5.376133e-01  1.873627e+00  -2.373536e+00  1.128692e+00  1.155372e+00  1.467304e+00  2.193053e-01  5.302613e-01  1.949494e+00  -2.440757e+00  1.128861e+00  1.152922e+00  1.464967e+00  2.435099e-01  5.600078e-01  1.861700e+00  -2.364273e+00  1.126096e+00  1.150741e+00  1.485315e+00  1.965788e-01  5.030314e-01  1.945269e+00  -2.386072e+00  1.124604e+00  1.150551e+00  1.390660e+00  3.470903e-01  6.725709e-01  1.982467e+00  -2.506819e+00  1.139115e+00  1.165192e+00  1.493669e+00  2.911630e-01  6.193151e-01  2.054108e+00  -2.501498e+00  1.134986e+00  1.166015e+00  1.365186e+00  2.986235e-01  6.306118e-01  2.064285e+00  -2.558038e+00  1.138808e+00  1.175869e+00  1.413232e+00  9.810425e-02  4.101604e-01  1.901299e+00  -2.441714e+00  1.137797e+00  1.170322e+00  1.500509e+00  1.959354e-01  5.103465e-01  1.930866e+00  -2.397525e+00  1.128288e+00  1.152399e+00  1.421272e+00  2.879810e-01  6.082950e-01  2.003107e+00  -2.548763e+00  1.142594e+00  1.176194e+00  1.493266e+00  8.992077e-02  3.992167e-01  1.995757e+00  -2.478254e+00  1.133890e+00  1.153777e+00  1.449413e+00  3.606455e-01  6.940659e-01  1.988297e+00  -2.472287e+00  1.131011e+00  1.163143e+00  1.431319e+00  2.006168e-01  5.161425e-01  2.107650e+00  -2.548075e+00  1.136134e+00  1.168341e+00  1.352652e+00  2.820983e-01  6.155558e-01  1.922825e+00  -2.478937e+00  1.148192e+00  1.180262e+00  1.507882e+00  3.720005e-01  7.112932e-01  2.107903e+00  -2.635469e+00  1.153225e+00  1.195828e+00  1.429904e+00  2.521729e-01  5.920995e-01  1.945822e+00  -2.460609e+00  1.136206e+00  1.171536e+00  1.459752e+00  2.146751e-01  5.328914e-01  1.940899e+00  -2.473891e+00  1.140617e+00  1.176809e+00  1.474175e+00  1.943160e-01  5.122626e-01  1.996342e+00  -2.533750e+00  1.143886e+00  1.177178e+00  1.482776e+00  2.231365e-01  5.479774e-01  1.857080e+00  -2.358445e+00  1.125921e+00  1.146597e+00  1.489820e+00  1.980563e-01  5.037816e-01  2.130208e+00  -2.599926e+00  1.140659e+00  1.186285e+00  1.357277e+00  1.037336e-01  4.218585e-01  2.050887e+00  -2.596482e+00  1.151174e+00  1.188457e+00  1.471030e+00  2.360654e-01  5.689549e-01  2.043967e+00  -2.511054e+00  1.136607e+00  1.171918e+00  1.382339e+00  2.318207e-01  5.572065e-01  2.028349e+00  -2.472523e+00  1.125581e+00  1.160278e+00  1.371493e+00  9.137075e-02  3.946360e-01  2.079896e+00  -2.554284e+00  1.136705e+00  1.170751e+00  1.398595e+00  1.887361e-01  5.103641e-01  1.963060e+00  -2.445165e+00  1.131418e+00  1.163359e+00  1.426948e+00  2.564632e-01  5.772249e-01  1.897584e+00  -2.465697e+00  1.145488e+00  1.181141e+00  1.519425e+00  2.253141e-01  5.465004e-01  1.971851e+00  -2.501744e+00  1.142918e+00  1.170188e+00  1.492257e+00  3.667878e-01  7.047784e-01  2.058939e+00  -2.596469e+00  1.145677e+00  1.190281e+00  1.457006e+00  8.453865e-02  3.990034e-01  1.947548e+00  -2.395004e+00  1.121513e+00  1.149710e+00  1.402835e+00  2.098851e-01  5.198156e-01  2.081190e+00  -2.593017e+00  1.143781e+00  1.190140e+00  1.414993e+00  1.130664e-01  4.310483e-01  1.903645e+00  -2.359209e+00  1.122254e+00  1.144366e+00  1.422815e+00  2.592072e-01  5.721292e-01  2.088895e+00  -2.611109e+00  1.145751e+00  1.182495e+00  1.448310e+00  1.626651e-01  4.862269e-01  1.927687e+00  -2.441801e+00  1.132916e+00  1.168882e+00  1.461584e+00  1.179107e-01  4.233966e-01  
      </Weights>
      <Biases Rows="100" Columns="1">
        4.035708e+01  -4.035881e+01  -8.081354e+00  -8.099325e+00  -8.075551e+00  -8.072414e+00  -8.075627e+00  -8.061281e+00  -8.069692e+00  -8.091208e+00  -8.096334e+00  -8.078336e+00  -8.073307e+00  -8.086329e+00  -8.082070e+00  -8.078328e+00  -8.067880e+00  -8.088294e+00  -8.079946e+00  -8.072420e+00  -8.058666e+00  -8.068041e+00  -8.096256e+00  -8.082795e+00  -8.071577e+00  -8.076077e+00  -8.090931e+00  -8.068314e+00  -8.087365e+00  -8.092108e+00  -8.066093e+00  -8.097799e+00  -8.076345e+00  -8.090015e+00  -8.081185e+00  -8.101910e+00  -8.062962e+00  -8.081191e+00  -8.068312e+00  -8.065848e+00  -8.080895e+00  -8.064890e+00  -8.084440e+00  -8.090698e+00  -8.091813e+00  -8.089279e+00  -8.066196e+00  -8.094245e+00  -8.091406e+00  -8.072176e+00  -8.087626e+00  -8.061510e+00  -8.101903e+00  -8.092837e+00  -8.103034e+00  -8.096397e+00  -8.092993e+00  -8.087124e+00  -8.088415e+00  -8.070923e+00  -8.068194e+00  -8.067024e+00  -8.056988e+00  -8.089689e+00  -8.078484e+00  -8.070749e+00  -8.076447e+00  -8.098612e+00  -8.085329e+00  -8.100116e+00  -8.088525e+00  -8.080035e+00  -8.070686e+00  -8.068420e+00  -8.093667e+00  -8.090010e+00  -8.077250e+00  -8.079841e+00  -8.078686e+00  -8.063617e+00  -8.090602e+00  -8.062853e+00  -8.085804e+00  -8.086298e+00  -8.078489e+00  -8.101368e+00  -8.059352e+00  -8.070231e+00  -8.071066e+00  -8.074013e+00  -8.066010e+00  -8.083691e+00  -8.094814e+00  -8.082279e+00  -8.068022e+00  -8.086107e+00  -8.066106e+00  -8.094469e+00  -8.064618e+00  -8.088918e+00  
      </Biases>
    </DenseLayer>
  </Weights>
</MethodSetup>
