<?xml version="1.0"?>
<MethodSetup Method="DL::DL3">
  <GeneralInfo>
    <Info name="TMVA Release" value="4.2.1 [262657]"/>
    <Info name="ROOT Release" value="6.22/00 [398848]"/>
    <Info name="Creator" value="pasquale"/>
    <Info name="Date" value="Mon Oct 12 20:17:50 2020"/>
    <Info name="Host" value="Linux pasquale 5.4.0-42-generic #46-Ubuntu SMP Fri Jul 10 00:24:02 UTC 2020 x86_64 x86_64 x86_64 GNU/Linux"/>
    <Info name="Dir" value="/home/pasquale/Trial"/>
    <Info name="Training events" value="20000"/>
    <Info name="TrainingTime" value="5.66520340e+01"/>
    <Info name="AnalysisType" value="Classification"/>
  </GeneralInfo>
  <Options>
    <Option name="V" modified="Yes">True</Option>
    <Option name="VerbosityLevel" modified="No">Verbose</Option>
    <Option name="VarTransform" modified="Yes">N</Option>
    <Option name="H" modified="Yes">False</Option>
    <Option name="CreateMVAPdfs" modified="No">False</Option>
    <Option name="IgnoreNegWeightsInTraining" modified="No">False</Option>
    <Option name="InputLayout" modified="No">0|0|0</Option>
    <Option name="BatchLayout" modified="No">0|0|0</Option>
    <Option name="Layout" modified="Yes">TANH|100,</Option>
    <Option name="ErrorStrategy" modified="Yes">CROSSENTROPY</Option>
    <Option name="WeightInitialization" modified="Yes">XAVIERUNIFORM</Option>
    <Option name="RandomSeed" modified="No">0</Option>
    <Option name="ValidationSize" modified="No">20%</Option>
    <Option name="Architecture" modified="No">CPU</Option>
    <Option name="TrainingStrategy" modified="Yes">LearningRate=1e-1,Momentum=0.5,</Option>
  </Options>
  <Variables NVar="7">
    <Variable VarIndex="0" Expression="sqrt(pow(jet1_px,2)+pow(jet1_py,2))" Label="MVAjet1_pT" Title="MVAjet1_pT" Unit="" Internal="MVAjet1_pT" Type="F" Min="1.20000488e+03" Max="3.14721387e+03"/>
    <Variable VarIndex="1" Expression="sqrt(pow(jet2_px,2)+pow(jet2_py,2))" Label="MVAjet2_pT" Title="MVAjet2_pT" Unit="" Internal="MVAjet2_pT" Type="F" Min="4.64428680e+02" Max="2.93609863e+03"/>
    <Variable VarIndex="2" Expression="sqrt(abs(pow(jet1_E,2)-pow(jet1_px,2)-pow(jet1_py,2)-pow(jet1_pz,2)))" Label="MVAjet1_m" Title="MVAjet1_m" Unit="" Internal="MVAjet1_m" Type="F" Min="5.39479652e-06" Max="1.26403845e+03"/>
    <Variable VarIndex="3" Expression="sqrt(abs(pow(jet2_E,2)-pow(jet2_px,2)-pow(jet2_py,2)-pow(jet2_pz,2)))" Label="MVAjet2_m" Title="MVAjet2_m" Unit="" Internal="MVAjet2_m" Type="F" Min="1.29557371e+01" Max="1.11980005e+03"/>
    <Variable VarIndex="4" Expression="sqrt(abs(pow(jet1_E+jet2_E,2)-pow(jet1_px+jet2_px,2)-pow(jet1_py+jet2_py,2)-pow(jet1_pz+jet2_pz,2)))" Label="MVAjet_mjj" Title="MVAjet_mjj" Unit="" Internal="MVAjet_mjj" Type="F" Min="1.62789111e+03" Max="7.89487354e+03"/>
    <Variable VarIndex="5" Expression="jet1_px" Label="MVAjet1_px" Title="MVAjet1_px" Unit="" Internal="MVAjet1_px" Type="F" Min="-2.50936670e+03" Max="3.02109814e+03"/>
    <Variable VarIndex="6" Expression="jet2_px" Label="MVAjet2_px" Title="MVAjet2_px" Unit="" Internal="MVAjet2_px" Type="F" Min="-2.84343457e+03" Max="2.49503467e+03"/>
  </Variables>
  <Spectators NSpec="0"/>
  <Classes NClass="2">
    <Class Name="Signal" Index="0"/>
    <Class Name="Background" Index="1"/>
  </Classes>
  <Transformations NTransformations="1">
    <Transform Name="Normalize">
      <Selection>
        <Input NInputs="7">
          <Input Type="Variable" Label="MVAjet1_pT" Expression="sqrt(pow(jet1_px,2)+pow(jet1_py,2))"/>
          <Input Type="Variable" Label="MVAjet2_pT" Expression="sqrt(pow(jet2_px,2)+pow(jet2_py,2))"/>
          <Input Type="Variable" Label="MVAjet1_m" Expression="sqrt(abs(pow(jet1_E,2)-pow(jet1_px,2)-pow(jet1_py,2)-pow(jet1_pz,2)))"/>
          <Input Type="Variable" Label="MVAjet2_m" Expression="sqrt(abs(pow(jet2_E,2)-pow(jet2_px,2)-pow(jet2_py,2)-pow(jet2_pz,2)))"/>
          <Input Type="Variable" Label="MVAjet_mjj" Expression="sqrt(abs(pow(jet1_E+jet2_E,2)-pow(jet1_px+jet2_px,2)-pow(jet1_py+jet2_py,2)-pow(jet1_pz+jet2_pz,2)))"/>
          <Input Type="Variable" Label="MVAjet1_px" Expression="jet1_px"/>
          <Input Type="Variable" Label="MVAjet2_px" Expression="jet2_px"/>
        </Input>
        <Output NOutputs="7">
          <Output Type="Variable" Label="MVAjet1_pT" Expression="sqrt(pow(jet1_px,2)+pow(jet1_py,2))"/>
          <Output Type="Variable" Label="MVAjet2_pT" Expression="sqrt(pow(jet2_px,2)+pow(jet2_py,2))"/>
          <Output Type="Variable" Label="MVAjet1_m" Expression="sqrt(abs(pow(jet1_E,2)-pow(jet1_px,2)-pow(jet1_py,2)-pow(jet1_pz,2)))"/>
          <Output Type="Variable" Label="MVAjet2_m" Expression="sqrt(abs(pow(jet2_E,2)-pow(jet2_px,2)-pow(jet2_py,2)-pow(jet2_pz,2)))"/>
          <Output Type="Variable" Label="MVAjet_mjj" Expression="sqrt(abs(pow(jet1_E+jet2_E,2)-pow(jet1_px+jet2_px,2)-pow(jet1_py+jet2_py,2)-pow(jet1_pz+jet2_pz,2)))"/>
          <Output Type="Variable" Label="MVAjet1_px" Expression="jet1_px"/>
          <Output Type="Variable" Label="MVAjet2_px" Expression="jet2_px"/>
        </Output>
      </Selection>
      <Class ClassIndex="0">
        <Ranges>
          <Range Index="0" Min="1.2000573730468750e+03" Max="2.6628105468750000e+03"/>
          <Range Index="1" Min="5.6190100097656250e+02" Max="2.6089821777343750e+03"/>
          <Range Index="2" Min="5.3947965170664247e-06" Max="1.2567780761718750e+03"/>
          <Range Index="3" Min="1.4282142639160156e+01" Max="1.1198000488281250e+03"/>
          <Range Index="4" Min="1.7486964111328125e+03" Max="5.7130224609375000e+03"/>
          <Range Index="5" Min="-2.3688759765625000e+03" Max="2.3126970214843750e+03"/>
          <Range Index="6" Min="-2.2801359863281250e+03" Max="2.1440268554687500e+03"/>
        </Ranges>
      </Class>
      <Class ClassIndex="1">
        <Ranges>
          <Range Index="0" Min="1.2000048828125000e+03" Max="3.1472138671875000e+03"/>
          <Range Index="1" Min="4.6442868041992188e+02" Max="2.9360986328125000e+03"/>
          <Range Index="2" Min="1.0742756843566895e+01" Max="1.2640384521484375e+03"/>
          <Range Index="3" Min="1.2955737113952637e+01" Max="1.0807320556640625e+03"/>
          <Range Index="4" Min="1.6278911132812500e+03" Max="7.8948735351562500e+03"/>
          <Range Index="5" Min="-2.5093666992187500e+03" Max="3.0210981445312500e+03"/>
          <Range Index="6" Min="-2.8434345703125000e+03" Max="2.4950346679687500e+03"/>
        </Ranges>
      </Class>
      <Class ClassIndex="2">
        <Ranges>
          <Range Index="0" Min="1.2000048828125000e+03" Max="3.1472138671875000e+03"/>
          <Range Index="1" Min="4.6442868041992188e+02" Max="2.9360986328125000e+03"/>
          <Range Index="2" Min="5.3947965170664247e-06" Max="1.2640384521484375e+03"/>
          <Range Index="3" Min="1.2955737113952637e+01" Max="1.1198000488281250e+03"/>
          <Range Index="4" Min="1.6278911132812500e+03" Max="7.8948735351562500e+03"/>
          <Range Index="5" Min="-2.5093666992187500e+03" Max="3.0210981445312500e+03"/>
          <Range Index="6" Min="-2.8434345703125000e+03" Max="2.4950346679687500e+03"/>
        </Ranges>
      </Class>
    </Transform>
  </Transformations>
  <MVAPdfs/>
  <Weights NetDepth="1" InputDepth="1" InputHeight="1" InputWidth="7" BatchSize="1" BatchDepth="1" BatchHeight="30" BatchWidth="7" LossFunction="C" Initialization="F" Regularization="0" OutputFunction="S" WeightDecay="0.0000000000000000e+00">
    <DenseLayer Width="100" ActivationFunction="3">
      <Weights Rows="100" Columns="7">
        -3.404416e+00  1.879749e+01  2.769563e+01  2.546645e+01  1.215671e+01  3.983006e+00  4.912706e+00  3.404562e+00  -1.879830e+01  -2.769672e+01  -2.546755e+01  -1.215723e+01  -3.983241e+00  -4.913070e+00  2.011167e+00  -2.462636e+00  1.148579e+00  1.172157e+00  1.431119e+00  4.091305e-01  7.486930e-01  2.075907e+00  -2.588203e+00  1.162074e+00  1.191376e+00  1.483961e+00  3.513953e-01  6.962923e-01  1.984467e+00  -2.418339e+00  1.147177e+00  1.164507e+00  1.419856e+00  5.143749e-01  8.619311e-01  1.955828e+00  -2.472365e+00  1.152677e+00  1.179403e+00  1.519396e+00  3.101881e-01  6.377035e-01  2.025253e+00  -2.530392e+00  1.157630e+00  1.186445e+00  1.490472e+00  4.367805e-01  7.851553e-01  2.163691e+00  -2.609550e+00  1.157623e+00  1.194514e+00  1.377816e+00  3.124827e-01  6.564804e-01  2.006991e+00  -2.503153e+00  1.150449e+00  1.180220e+00  1.484716e+00  2.588186e-01  5.835704e-01  2.162771e+00  -2.709685e+00  1.171184e+00  1.220915e+00  1.475775e+00  1.281987e-01  4.599023e-01  2.030967e+00  -2.437434e+00  1.142766e+00  1.161404e+00  1.386707e+00  4.772957e-01  8.215137e-01  2.082888e+00  -2.520787e+00  1.149495e+00  1.179934e+00  1.395788e+00  3.525014e-01  6.913745e-01  2.082000e+00  -2.530101e+00  1.155467e+00  1.181499e+00  1.407367e+00  4.593470e-01  8.122756e-01  1.961099e+00  -2.384398e+00  1.140393e+00  1.159713e+00  1.412712e+00  3.966024e-01  7.275653e-01  2.024500e+00  -2.499227e+00  1.152472e+00  1.176338e+00  1.458961e+00  4.120954e-01  7.551204e-01  1.965931e+00  -2.448675e+00  1.151989e+00  1.175908e+00  1.468097e+00  3.798649e-01  7.155817e-01  2.112145e+00  -2.567876e+00  1.153700e+00  1.187564e+00  1.404001e+00  2.948669e-01  6.318690e-01  1.995675e+00  -2.473902e+00  1.148628e+00  1.177639e+00  1.464632e+00  3.457606e-01  6.783929e-01  2.194495e+00  -2.651144e+00  1.165139e+00  1.205266e+00  1.371053e+00  3.452816e-01  6.989587e-01  2.171195e+00  -2.675173e+00  1.169809e+00  1.210915e+00  1.428511e+00  2.892418e-01  6.381404e-01  1.997397e+00  -2.475511e+00  1.155415e+00  1.177049e+00  1.459555e+00  4.683396e-01  8.167882e-01  1.961282e+00  -2.432744e+00  1.151002e+00  1.170300e+00  1.466125e+00  4.727961e-01  8.167149e-01  2.149348e+00  -2.673440e+00  1.172791e+00  1.208910e+00  1.461666e+00  3.172279e-01  6.688557e-01  2.048644e+00  -2.583408e+00  1.169414e+00  1.196330e+00  1.508291e+00  4.730713e-01  8.329318e-01  1.942408e+00  -2.397828e+00  1.148021e+00  1.164150e+00  1.457121e+00  5.592504e-01  9.093211e-01  2.139914e+00  -2.555814e+00  1.152393e+00  1.184960e+00  1.351487e+00  3.668920e-01  7.120050e-01  2.043525e+00  -2.488139e+00  1.150925e+00  1.181018e+00  1.394746e+00  3.166250e-01  6.504252e-01  2.079776e+00  -2.513711e+00  1.155910e+00  1.175634e+00  1.400951e+00  5.825104e-01  9.477293e-01  2.071763e+00  -2.530589e+00  1.157435e+00  1.181471e+00  1.418929e+00  4.569145e-01  8.099145e-01  2.154637e+00  -2.604798e+00  1.156683e+00  1.194982e+00  1.380017e+00  2.647567e-01  6.027427e-01  1.988023e+00  -2.492954e+00  1.153325e+00  1.180771e+00  1.498516e+00  3.306260e-01  6.628675e-01  1.915013e+00  -2.367778e+00  1.142666e+00  1.161826e+00  1.452020e+00  3.584534e-01  6.839493e-01  1.927726e+00  -2.415114e+00  1.151788e+00  1.164786e+00  1.508329e+00  5.695686e-01  9.212177e-01  1.987697e+00  -2.523318e+00  1.158748e+00  1.191608e+00  1.522750e+00  3.167567e-01  6.509823e-01  2.068947e+00  -2.600599e+00  1.165455e+00  1.202334e+00  1.491619e+00  2.880994e-01  6.282791e-01  1.949708e+00  -2.387278e+00  1.139813e+00  1.162461e+00  1.426075e+00  2.784986e-01  5.968512e-01  2.108540e+00  -2.580942e+00  1.156020e+00  1.190497e+00  1.425871e+00  2.778454e-01  6.138843e-01  2.070108e+00  -2.545675e+00  1.157776e+00  1.185637e+00  1.435536e+00  3.632280e-01  7.069028e-01  1.932209e+00  -2.403371e+00  1.146475e+00  1.163280e+00  1.483018e+00  4.670555e-01  8.063576e-01  2.044841e+00  -2.472882e+00  1.147106e+00  1.180629e+00  1.371406e+00  2.609204e-01  5.872386e-01  1.922689e+00  -2.443829e+00  1.159117e+00  1.172937e+00  1.541811e+00  5.687336e-01  9.237838e-01  1.977498e+00  -2.447359e+00  1.148231e+00  1.175401e+00  1.448404e+00  2.719027e-01  5.954621e-01  2.020981e+00  -2.525366e+00  1.156215e+00  1.193213e+00  1.467935e+00  2.523301e-01  5.813050e-01  2.034758e+00  -2.526067e+00  1.155694e+00  1.180841e+00  1.480219e+00  4.497225e-01  7.985406e-01  2.101874e+00  -2.607985e+00  1.160735e+00  1.196484e+00  1.465769e+00  2.551784e-01  5.911646e-01  2.123862e+00  -2.548454e+00  1.151026e+00  1.183274e+00  1.364314e+00  3.048104e-01  6.416993e-01  2.165113e+00  -2.572039e+00  1.152225e+00  1.179123e+00  1.354322e+00  4.391053e-01  7.924219e-01  1.944875e+00  -2.364245e+00  1.139125e+00  1.161809e+00  1.397636e+00  2.985993e-01  6.186242e-01  2.066615e+00  -2.616055e+00  1.165497e+00  1.208255e+00  1.506276e+00  1.964963e-01  5.268120e-01  2.143539e+00  -2.627961e+00  1.166235e+00  1.197688e+00  1.426633e+00  4.038385e-01  7.609352e-01  2.152671e+00  -2.578620e+00  1.155373e+00  1.186734e+00  1.364270e+00  3.964783e-01  7.472128e-01  1.945424e+00  -2.393827e+00  1.144480e+00  1.158295e+00  1.460968e+00  5.472418e-01  8.940676e-01  1.922850e+00  -2.447207e+00  1.154270e+00  1.177459e+00  1.534141e+00  3.626161e-01  6.945329e-01  1.979481e+00  -2.440721e+00  1.145698e+00  1.171926e+00  1.444882e+00  2.807339e-01  6.037900e-01  1.990257e+00  -2.511151e+00  1.157121e+00  1.185221e+00  1.511114e+00  3.116153e-01  6.442050e-01  1.948147e+00  -2.493798e+00  1.159490e+00  1.188760e+00  1.538376e+00  2.629596e-01  5.892095e-01  2.019234e+00  -2.510072e+00  1.155256e+00  1.188392e+00  1.455312e+00  2.974262e-01  6.304575e-01  2.027433e+00  -2.487254e+00  1.152679e+00  1.173143e+00  1.441117e+00  4.491856e-01  7.958499e-01  2.151229e+00  -2.647289e+00  1.166031e+00  1.199622e+00  1.441105e+00  3.270118e-01  6.761982e-01  2.055568e+00  -2.614311e+00  1.167144e+00  1.210052e+00  1.517460e+00  2.061623e-01  5.376745e-01  2.191963e+00  -2.606863e+00  1.160353e+00  1.188512e+00  1.338627e+00  4.181816e-01  7.757761e-01  2.063954e+00  -2.523689e+00  1.153283e+00  1.187094e+00  1.406034e+00  2.231130e-01  5.499207e-01  2.105608e+00  -2.562507e+00  1.152904e+00  1.191676e+00  1.396902e+00  2.156505e-01  5.440754e-01  2.139652e+00  -2.664249e+00  1.166296e+00  1.208685e+00  1.470170e+00  2.570663e-01  5.988466e-01  1.959675e+00  -2.497625e+00  1.155760e+00  1.187126e+00  1.534365e+00  2.317261e-01  5.533124e-01  2.040187e+00  -2.489018e+00  1.147724e+00  1.177220e+00  1.417391e+00  3.099225e-01  6.406888e-01  1.979832e+00  -2.516720e+00  1.163980e+00  1.186921e+00  1.533660e+00  4.547335e-01  8.049326e-01  2.009888e+00  -2.449625e+00  1.146453e+00  1.170012e+00  1.421309e+00  4.720196e-01  8.171456e-01  2.151122e+00  -2.591236e+00  1.158524e+00  1.188149e+00  1.387164e+00  4.735852e-01  8.341020e-01  2.090086e+00  -2.602613e+00  1.162011e+00  1.196551e+00  1.473306e+00  2.989751e-01  6.395648e-01  2.050879e+00  -2.562829e+00  1.160450e+00  1.186643e+00  1.494988e+00  3.823155e-01  7.276871e-01  1.925975e+00  -2.484458e+00  1.158206e+00  1.192123e+00  1.558580e+00  2.467140e-01  5.691986e-01  2.117827e+00  -2.642293e+00  1.166926e+00  1.200997e+00  1.485333e+00  3.435280e-01  6.928038e-01  2.136826e+00  -2.606946e+00  1.157543e+00  1.192605e+00  1.415734e+00  2.274206e-01  5.606220e-01  2.025594e+00  -2.525904e+00  1.159233e+00  1.194969e+00  1.450419e+00  2.625672e-01  5.945424e-01  2.150676e+00  -2.566124e+00  1.150828e+00  1.182263e+00  1.352359e+00  2.591883e-01  5.922877e-01  2.098048e+00  -2.509156e+00  1.149097e+00  1.175328e+00  1.362258e+00  4.107381e-01  7.558776e-01  2.124660e+00  -2.567076e+00  1.156909e+00  1.185073e+00  1.387073e+00  3.642560e-01  7.106505e-01  2.164325e+00  -2.595025e+00  1.161994e+00  1.192079e+00  1.356069e+00  4.523350e-01  8.131226e-01  1.993517e+00  -2.441801e+00  1.145600e+00  1.174624e+00  1.414390e+00  2.446278e-01  5.653183e-01  2.128330e+00  -2.636935e+00  1.166487e+00  1.203461e+00  1.455451e+00  3.722191e-01  7.256689e-01  2.154265e+00  -2.637927e+00  1.162422e+00  1.196672e+00  1.429065e+00  2.927913e-01  6.364983e-01  2.151042e+00  -2.645673e+00  1.168129e+00  1.203758e+00  1.430088e+00  3.615624e-01  7.159120e-01  1.981779e+00  -2.486635e+00  1.153027e+00  1.181570e+00  1.497240e+00  3.350357e-01  6.675078e-01  2.033607e+00  -2.472588e+00  1.148444e+00  1.165921e+00  1.430013e+00  5.298494e-01  8.824977e-01  2.030552e+00  -2.555499e+00  1.164092e+00  1.193939e+00  1.491842e+00  3.407705e-01  6.830528e-01  2.201017e+00  -2.676871e+00  1.171389e+00  1.211969e+00  1.380946e+00  3.479058e-01  7.056584e-01  2.110668e+00  -2.612989e+00  1.163453e+00  1.209076e+00  1.422197e+00  1.338405e-01  4.594608e-01  2.158187e+00  -2.619557e+00  1.160914e+00  1.196476e+00  1.391428e+00  2.721564e-01  6.131206e-01  2.063028e+00  -2.580747e+00  1.164236e+00  1.192378e+00  1.490824e+00  3.994337e-01  7.495179e-01  1.995512e+00  -2.465998e+00  1.152808e+00  1.181196e+00  1.439165e+00  3.932235e-01  7.331074e-01  2.040382e+00  -2.492653e+00  1.151411e+00  1.182221e+00  1.411761e+00  3.738385e-01  7.137275e-01  2.167525e+00  -2.668737e+00  1.168073e+00  1.210584e+00  1.429374e+00  3.144871e-01  6.652054e-01  2.069118e+00  -2.524570e+00  1.152078e+00  1.180757e+00  1.414065e+00  2.813725e-01  6.133286e-01  2.058169e+00  -2.532018e+00  1.152079e+00  1.187397e+00  1.435811e+00  3.046705e-01  6.391689e-01  2.162037e+00  -2.690509e+00  1.175544e+00  1.219373e+00  1.443406e+00  2.834271e-01  6.343833e-01  2.029234e+00  -2.490544e+00  1.150429e+00  1.180523e+00  1.432099e+00  3.879961e-01  7.282007e-01  2.146897e+00  -2.571595e+00  1.155391e+00  1.181603e+00  1.369046e+00  4.034158e-01  7.539548e-01  2.019070e+00  -2.482121e+00  1.148250e+00  1.175109e+00  1.442121e+00  3.225771e-01  6.537241e-01  1.959008e+00  -2.375581e+00  1.140834e+00  1.160643e+00  1.395549e+00  3.615301e-01  6.891651e-01  
      </Weights>
      <Biases Rows="100" Columns="1">
        3.773141e+01  -3.773297e+01  -7.970385e+00  -7.961657e+00  -7.976937e+00  -7.977600e+00  -7.968406e+00  -7.948317e+00  -7.969772e+00  -7.948453e+00  -7.970602e+00  -7.959844e+00  -7.960101e+00  -7.980199e+00  -7.969738e+00  -7.979592e+00  -7.957249e+00  -7.973202e+00  -7.944820e+00  -7.948329e+00  -7.974993e+00  -7.978970e+00  -7.951673e+00  -7.967704e+00  -7.983043e+00  -7.952957e+00  -7.968357e+00  -7.960918e+00  -7.963587e+00  -7.950432e+00  -7.972101e+00  -7.987758e+00  -7.985721e+00  -7.974917e+00  -7.961466e+00  -7.982130e+00  -7.954577e+00  -7.962931e+00  -7.985141e+00  -7.968052e+00  -7.987458e+00  -7.976010e+00  -7.967978e+00  -7.966629e+00  -7.955667e+00  -7.955952e+00  -7.948410e+00  -7.984093e+00  -7.962407e+00  -7.953011e+00  -7.951007e+00  -7.982384e+00  -7.986057e+00  -7.974781e+00  -7.973148e+00  -7.981737e+00  -7.969465e+00  -7.968528e+00  -7.949919e+00  -7.963786e+00  -7.946315e+00  -7.963575e+00  -7.957266e+00  -7.951406e+00  -7.978218e+00  -7.964509e+00  -7.977118e+00  -7.973114e+00  -7.949744e+00  -7.959374e+00  -7.964934e+00  -7.983784e+00  -7.954779e+00  -7.951211e+00  -7.969573e+00  -7.950526e+00  -7.960361e+00  -7.954257e+00  -7.950449e+00  -7.975460e+00  -7.954482e+00  -7.948889e+00  -7.950601e+00  -7.973001e+00  -7.968489e+00  -7.970101e+00  -7.945937e+00  -7.957799e+00  -7.949250e+00  -7.963336e+00  -7.974476e+00  -7.965324e+00  -7.947440e+00  -7.963004e+00  -7.963942e+00  -7.951237e+00  -7.967547e+00  -7.952269e+00  -7.970317e+00  -7.982503e+00  
      </Biases>
    </DenseLayer>
  </Weights>
</MethodSetup>
